{
    "param_dict": {
        "norm_type": "clip_0to1",
        "score_clip": [
            0.0,
            100.0
        ],
        "gamma": 0.05,
        "C": 4.0,
        "nu": 0.9
    },
    "model_dict": {
        "model_type": "LIBSVMNUSVR",
        "feature_names": [
            "VMAF_feature_adm2_score",
            "VMAF_feature_motion2_score",
            "VMAF_feature_vif_scale0_score",
            "VMAF_feature_vif_scale1_score",
            "VMAF_feature_vif_scale2_score",
            "VMAF_feature_vif_scale3_score"
        ],
        "slopes": [
            0.02,
            6.688155594696421,
            0.07020093568580746,
            1.3175225084588738,
            2.101797038315088,
            2.769377710098247,
            3.6748182953786563
        ],
        "intercepts": [
            -1.0,
            -5.688155594696421,
            -0.0683142122182741,
            -0.31752250845887386,
            -1.1017957296393177,
            -1.7693747332779666,
            -2.6748139377321425
        ],
        "norm_type": "linear_rescale",
        "model": "svm_type nu_svr\nkernel_type rbf\ngamma 0.050000000000000003\nnr_class 2\ntotal_sv 33\nrho -0.9095920869407903\nSV\n-0.30762515676424318 1:1 2:0.3302805 3:0.99999976 4:0.99999961 5:0.99999947 6:1 \n-4 1:0.82931795 2:0.3302805 3:0.49405702 4:0.85251821 5:0.9013967 6:0.92358068 \n-4 1:0.84845515 2:0.3302805 3:0.52865082 4:0.87500392 5:0.91761799 6:0.93656609 \n4 1:0.88666054 2:0.3302805 3:0.60707273 4:0.91596095 5:0.94608342 6:0.95893333 \n2.5402653858090893 1:1 3:0.99999932 4:0.99999384 5:0.99999213 6:0.99999413 \n-4 1:0.85115468 3:0.38976393 4:0.87423471 5:0.92115024 6:0.94278172 \n4 1:0.87401693 3:0.41579708 4:0.90613566 5:0.94486616 6:0.96188355 \n0.91089698108245987 1:1 2:0.72554554 3:1 4:1 5:1 6:0.99999998 \n-4 1:0.26996359 2:0.72554554 3:0.0065850068 4:0.18050185 5:0.2711004 6:0.34264889 \n-4 1:0.42822498 2:0.72554554 3:0.071359032 4:0.35484053 5:0.46562699 6:0.54139739 \n-4 1:0.53731001 2:0.72554554 3:0.13010456 4:0.48796167 5:0.60074726 6:0.67070537 \n-4 1:0.63540978 2:0.72554554 3:0.19746777 4:0.61450963 5:0.71825978 6:0.77650494 \n4 1:0.74210376 2:0.72554554 3:0.29386966 4:0.75242824 5:0.83321492 6:0.87331333 \n-1.2330818348765442 1:1 2:0.94085162 3:0.99999927 4:0.99999749 5:0.99999591 6:0.99999499 \n-4 1:0.59952813 2:0.94085162 3:0.27206894 4:0.54764152 5:0.65093182 6:0.71530882 \n-1.18601528046962 1:0.69701804 2:0.94085162 3:0.35238313 4:0.6790636 5:0.77093936 6:0.82257738 \n4 1:0.7639332 2:0.94085162 3:0.42264603 4:0.77106122 5:0.84616831 6:0.88507638 \n3.4205067104433691 1:1 2:0.64888404 3:0.99999682 4:0.99999233 5:0.99998894 6:0.99998572 \n1.7598032429258936 2:0.64888404 3:0.042448453 5:-2.220446e-16 6:-4.4408921e-16 \n4 1:0.15209484 2:0.64888404 3:0.088203768 4:0.13116959 5:0.17570219 6:0.21119079 \n4 1:0.40063425 2:0.64888404 3:0.19186531 4:0.39501699 5:0.49284445 6:0.55826314 \n4 1:0.56993911 2:0.64888404 3:0.2890507 4:0.59338832 5:0.69276973 6:0.74919688 \n4 1:0.67137299 2:0.64888404 3:0.36697649 4:0.7147252 5:0.79827984 6:0.84080177 \n-4 1:0.77358315 2:0.56828245 3:0.46120766 4:0.79325071 5:0.86000619 6:0.89309752 \n-4 1:0.92473903 2:0.56828245 3:0.71897231 4:0.95828423 5:0.9750438 6:0.98167842 \n-1.9047500481504065 1:1 2:0.25619749 3:1 4:0.99999307 5:0.99999237 6:0.99998856 \n4 1:0.78989918 2:0.25619749 3:0.16302235 4:0.84857772 5:0.90903075 6:0.93489489 \n-4 1:0.37429553 2:1 3:-5.5511151e-17 4:0.33318583 5:0.44170699 6:0.51388791 \n-4 1:0.50104289 2:1 3:0.050951805 4:0.47945019 5:0.5942359 6:0.6630824 \n4 1:0.59198673 2:1 3:0.097069587 4:0.59291145 5:0.70181597 6:0.76183234 \n4 1:0.74923391 2:1 3:0.20814352 4:0.7918111 5:0.86667997 6:0.90164113 \n4 1:0.78976153 2:1 3:0.24949246 4:0.83973288 5:0.90123811 6:0.92856499 \n-4 1:0.80122108 2:0.56696318 3:0.45585575 4:0.84227488 5:0.89403023 6:0.9227505 \n",
        "feature_dict": {
            "VMAF_feature": [
                "vif_scale0",
                "vif_scale1",
                "vif_scale2",
                "vif_scale3",
                "adm2",
                "motion2"
            ]
        },
        "score_clip": [
            0.0,
            100.0
        ]
    }
}